4 90
FJ_FS_ZAS_000_000_000_A 0.039325 -0.14848 0.14254 -0.021816 0.12576 0.014923 0.16059 -0.086973 -0.075306 0.25008 -0.25967 0.046523 -0.078629 -0.10626 0.11118 0.13919 0.11362 0.0089735 0.2138 -0.021029 0.080849 0.043296 0.077129 0.1212 0.07578 0.028679 -0.052941 -0.3004 0.2204 0.066013 -0.1245 -0.14537 0.12911 -0.21989 -0.25908 0.092072 0.14073 0.1657 -0.071572 -0.18594 -0.094129 0.18245 0.15531 0.026304 -0.040353 -0.094264 -0.25909 -0.2317 -0.1199 -0.014031 -0.16272 -0.030381 0.05097 0.11664 -0.042322 -0.22878 -0.18779 -0.18684 -0.0096962 -0.013387 0.025889 -0.11471 0.077441 -0.18578 0.15861 -0.18616 -0.12104 -0.14875 0.25836 -0.047496 -0.20556 0.23662 -0.074792 0.11247 0.28885 -0.13837 0.18623 0.19839 -0.12414 -0.033086 -0.18853 0.042713 0.14082 0.01361 0.22129 0.23147 -0.12645 0.071511 -0.34087 -0.1067 
IV_CE_ITX_XVW_000_000_B 0.11814 0.032791 0.16969 0.040939 -0.077414 -0.0085269 0.036192 -0.12383 -0.055204 0.031597 -0.07832 -0.00057052 -0.16024 -0.037512 0.080263 -0.05603 -0.022379 -0.041833 0.084817 -0.026246 -0.011619 -0.19895 -0.015836 -0.056414 0.037539 -0.008491 0.043508 -0.10369 0.05404 0.11917 0.020627 -0.047484 -0.055245 -0.0077097 0.047879 0.18421 0.035937 0.050743 -0.0006534 -0.30188 -0.11148 -0.063101 0.13389 0.046288 -0.013412 -0.013156 -0.090312 0.010904 0.053803 0.017057 -0.076469 -0.0049233 -0.11336 0.0083034 0.13102 -0.030922 0.19516 -0.10537 -0.1034 0.10909 0.037943 -0.077122 0.021253 0.15668 0.15201 -0.035367 -0.1128 0.029003 0.074868 -0.049789 -0.092755 0.044506 -0.19441 -0.023167 0.071208 -0.015597 0.062041 0.067042 0.10232 -0.019323 -0.048443 0.098551 0.16659 0.10782 0.012798 -0.047167 -0.079998 0.014539 0.13076 0.023139 
ML_UV_000_000_000_000_F 0.13694 -0.2463 0.13447 -0.0049008 0.20627 0.44741 0.015499 -0.42765 0.11071 0.63418 -0.038684 0.18765 -0.067827 -0.017959 0.125 -0.22093 -0.19404 0.061595 -0.16209 0.08733 -0.077722 0.29356 -0.0603 -0.14006 -0.033752 0.019747 -0.25023 -0.13507 -0.064196 -0.075478 0.4993 -0.49885 0.27294 0.14021 -0.41684 -0.084659 0.11043 0.21889 -0.45722 -0.85789 0.31954 0.39804 0.2358 -0.0079495 -0.14367 0.24791 -0.25064 -0.7826 -0.096222 -0.36345 -0.025087 -0.041922 0.11433 0.15615 0.12629 0.20527 -0.25342 -0.45117 -0.30577 0.4356 0.12444 -0.57129 0.13406 -0.064985 -0.14457 -0.085408 0.14271 -0.53167 0.11941 -0.0001362 -0.32793 -0.15165 -0.23914 -0.21909 0.4134 0.098828 0.45952 0.29002 0.42293 0.099766 -0.20047 -0.13255 -0.35244 0.097789 0.17779 0.1895 -0.10373 -0.3183 0.067013 -0.1331 
ML_DP_TKA_000_000_000_E 0.1511 0.0014918 0.0077405 0.091838 0.10514 0.22012 0.11117 -0.25135 0.12129 0.31354 -0.10561 -0.069064 -0.17231 -0.01745 0.023026 -0.17077 -0.031949 0.12945 0.019947 0.062326 -0.017748 0.15971 0.007995 -0.11049 0.14833 -0.020569 -0.046333 -0.20834 -0.019813 0.029341 0.13931 -0.309 -0.12006 0.059498 -0.20766 0.038626 0.10192 0.15173 -0.18645 -0.49394 0.18571 0.15083 0.29051 0.0039307 -0.084604 0.11009 -0.21159 -0.27575 -0.017678 -0.0026676 0.10711 0.066121 0.030769 0.18403 0.077686 0.10151 -0.052545 -0.26541 -0.23321 0.1055 0.081123 -0.2005 0.24254 -0.23153 -0.023373 0.12365 0.044218 -0.13288 0.091581 0.05377 -0.20002 0.059686 -0.17809 -0.04301 0.29856 0.10637 0.28573 0.32828 0.2191 0.18827 -0.095976 -0.0048198 -0.23508 0.21782 0.059581 -0.07674 -0.1908 -0.072673 0.031841 -0.1014 
